snip_id,z_mu_00,z_mu_01,z_mu_02,z_mu_03,z_mu_04,z_mu_05,z_mu_06,z_mu_07,z_mu_08,z_mu_09,z_mu_10,z_mu_11,z_mu_12,z_mu_13,z_mu_14,z_mu_15
20250612_30hpf_ctrl_atf6_C12_e01_t0000,0.12573022,-0.13210486,0.64042264,0.104900114,-0.5356694,0.36159506,1.304,0.94708097,-0.70373523,-1.2654215,-0.62327445,0.04132598,-2.3250308,-0.21879166,-1.245911,-0.7322674
20250612_30hpf_ctrl_atf6_E06_e01_t0000,-0.544259,-0.31630015,0.41163054,1.0425134,-0.12853466,1.3664634,-0.6651947,0.35151008,0.90347016,0.0940123,-0.7434993,-0.9217254,-0.45772582,0.22019513,-1.0096182,-0.20917557
